<?xml version="1.0" encoding="ISO-8859-1"?>
<smile version="1.0" id="Unnamed" numsamples="1000">
	<nodes>
		<cpt id="V_victims_sex">
			<state id="Male" />
			<state id="Female" />
			<probabilities>0.5 0.5</probabilities>
		</cpt>
		<cpt id="V_victims_size">
			<state id="Tall" />
			<state id="Medium" />
			<state id="Small" />
			<probabilities>0.3 0.45 0.25</probabilities>
		</cpt>
		<cpt id="V_victims_shoe_size_PREM">
			<state id="Nr_37" />
			<state id="Nr_38" />
			<state id="Nr_39" />
			<state id="Nr_40" />
			<state id="Nr_41" />
			<state id="Nr_42" />
			<state id="Nr_43" />
			<state id="Nr_44" />
			<state id="Nr_45" />
			<parents>V_victims_sex V_victims_size</parents>
			<probabilities>0 0 0 0 0 0.1111111111111111 0.1111111111111111 0.3333333333333333 0.4444444444444444 0 0 0 0 0 0.2 0.3 0.3 0.2 0 0 0 0 0 0.4444444444444444 0.3333333333333333 0.1111111111111111 0.1111111111111111 0.1538461538461539 0.07692307692307693 0.07692307692307693 0.2307692307692308 0.3076923076923077 0.1538461538461539 0 0 0 0.2307692307692308 0.1538461538461539 0.2307692307692308 0.2307692307692308 0.1538461538461539 0 0 0 0 0.4444444444444444 0.3333333333333333 0.1111111111111111 0.1111111111111111 0 0 0 0 0</probabilities>
		</cpt>
		<cpt id="V_victims_shoe_size_INF">
			<state id="Nr_37" />
			<state id="Nr_38" />
			<state id="Nr_39" />
			<state id="Nr_40" />
			<state id="Nr_41" />
			<state id="Nr_42" />
			<state id="Nr_43" />
			<state id="Nr_44" />
			<state id="Nr_45" />
			<parents>V_victims_shoe_size_PREM</parents>
			<probabilities>0.1111111111111111 0.1111111111111111 0.1111111111111111 0.1111111111111111 0.1111111111111111 0.1111111111111111 0.1111111111111111 0.1111111111111111 0.1111111111111111 0.1111111111111111 0.1111111111111111 0.1111111111111111 0.1111111111111111 0.1111111111111111 0.1111111111111111 0.1111111111111111 0.1111111111111111 0.1111111111111111 0.1111111111111111 0.1111111111111111 0.1111111111111111 0.1111111111111111 0.1111111111111111 0.1111111111111111 0.1111111111111111 0.1111111111111111 0.1111111111111111 0.1111111111111111 0.1111111111111111 0.1111111111111111 0.1111111111111111 0.1111111111111111 0.1111111111111111 0.1111111111111111 0.1111111111111111 0.1111111111111111 0.1111111111111111 0.1111111111111111 0.1111111111111111 0.1111111111111111 0.1111111111111111 0.1111111111111111 0.1111111111111111 0.1111111111111111 0.1111111111111111 0.1111111111111111 0.1111111111111111 0.1111111111111111 0.1111111111111111 0.1111111111111111 0.1111111111111111 0.1111111111111111 0.1111111111111111 0.1111111111111111 0.1111111111111111 0.1111111111111111 0.1111111111111111 0.1111111111111111 0.1111111111111111 0.1111111111111111 0.1111111111111111 0.1111111111111111 0.1111111111111111 0.1111111111111111 0.1111111111111111 0.1111111111111111 0.1111111111111111 0.1111111111111111 0.1111111111111111 0.1111111111111111 0.1111111111111111 0.1111111111111111 0.1111111111111111 0.1111111111111111 0.1111111111111111 0.1111111111111111 0.1111111111111111 0.1111111111111111 0.1111111111111111 0.1111111111111111 0.1111111111111111</probabilities>
		</cpt>
	</nodes>
	<extensions>
		<genie version="1.0" app="SMILE Mar 25 2008" name="V_victims_shoe_size" faultnameformat="nodestate">
			<node id="V_victims_shoe_size_PREM">
				<name>V_victims_shoe_size PREM</name>
				<interior color="e5f6f7" />
				<outline color="0000bb" />
				<font color="000000" name="MS Sans Serif" size="8" />
				<position>50 50 180 100</position>
			</node>
			<node id="V_victims_shoe_size_INF">
				<name>V_victims_shoe_size INF</name>
				<interior color="e5f6f7" />
				<outline color="0000bb" />
				<font color="000000" name="MS Sans Serif" size="8" />
				<position>0 0 130 50</position>
			</node>
			<node id="V_victims_sex">
				<name>Victims sex</name>
				<interior color="e5f6f7" />
				<outline color="0000bb" />
				<font color="000000" name="MS Sans Serif" size="8" />
				<position>250 50 380 100</position>
			</node>
			<node id="V_victims_size">
				<name>Victims size</name>
				<interior color="e5f6f7" />
				<outline color="0000bb" />
				<font color="000000" name="MS Sans Serif" size="8" />
				<position>50 250 180 300</position>
			</node>
		</genie>
	</extensions>
</smile>
