<?xml version="1.0" encoding="ISO-8859-1"?>
<smile version="1.0" id="Unnamed" numsamples="1000">
	<nodes>
		<cpt id="M_sex">
			<state id="Male" />
			<state id="Female" />
			<probabilities>0.5 0.5</probabilities>
		</cpt>
		<cpt id="M_size">
			<state id="Tall" />
			<state id="Medium" />
			<state id="Small" />
			<probabilities>0.3 0.45 0.25</probabilities>
		</cpt>
		<cpt id="M_shoe_size_PREM">
			<state id="Nr_37" />
			<state id="Nr_38" />
			<state id="Nr_39" />
			<state id="Nr_40" />
			<state id="Nr_41" />
			<state id="Nr_42" />
			<state id="Nr_43" />
			<state id="Nr_44" />
			<state id="Nr_45" />
			<parents>M_sex M_size</parents>
			<probabilities>0 0 0 0 0 0.1111111111111111 0.1111111111111111 0.3333333333333333 0.4444444444444444 0 0 0 0 0 0.2 0.3 0.3 0.2 0 0 0 0 0 0.4444444444444444 0.3333333333333333 0.1111111111111111 0.1111111111111111 0.01785714285714286 0.08928571428571429 0.08928571428571429 0.2678571428571429 0.3571428571428572 0.1785714285714286 0 0 0 0.02912621359223301 0.1941747572815534 0.2912621359223301 0.2912621359223301 0.1941747572815534 0 0 0 0 0.4329004329004329 0.3246753246753247 0.1082251082251082 0.1082251082251082 0.02597402597402597 0 0 0 0</probabilities>
		</cpt>
		<cpt id="M_shoe_size_INF">
			<state id="Nr_37" />
			<state id="Nr_38" />
			<state id="Nr_39" />
			<state id="Nr_40" />
			<state id="Nr_41" />
			<state id="Nr_42" />
			<state id="Nr_43" />
			<state id="Nr_44" />
			<state id="Nr_45" />
			<parents>M_shoe_size_PREM</parents>
			<probabilities>0.1111111111111111 0.1111111111111111 0.1111111111111111 0.1111111111111111 0.1111111111111111 0.1111111111111111 0.1111111111111111 0.1111111111111111 0.1111111111111111 0.1111111111111111 0.1111111111111111 0.1111111111111111 0.1111111111111111 0.1111111111111111 0.1111111111111111 0.1111111111111111 0.1111111111111111 0.1111111111111111 0.1111111111111111 0.1111111111111111 0.1111111111111111 0.1111111111111111 0.1111111111111111 0.1111111111111111 0.1111111111111111 0.1111111111111111 0.1111111111111111 0.1111111111111111 0.1111111111111111 0.1111111111111111 0.1111111111111111 0.1111111111111111 0.1111111111111111 0.1111111111111111 0.1111111111111111 0.1111111111111111 0.1111111111111111 0.1111111111111111 0.1111111111111111 0.1111111111111111 0.1111111111111111 0.1111111111111111 0.1111111111111111 0.1111111111111111 0.1111111111111111 0.1111111111111111 0.1111111111111111 0.1111111111111111 0.1111111111111111 0.1111111111111111 0.1111111111111111 0.1111111111111111 0.1111111111111111 0.1111111111111111 0.1111111111111111 0.1111111111111111 0.1111111111111111 0.1111111111111111 0.1111111111111111 0.1111111111111111 0.1111111111111111 0.1111111111111111 0.1111111111111111 0.1111111111111111 0.1111111111111111 0.1111111111111111 0.1111111111111111 0.1111111111111111 0.1111111111111111 0.1111111111111111 0.1111111111111111 0.1111111111111111 0.1111111111111111 0.1111111111111111 0.1111111111111111 0.1111111111111111 0.1111111111111111 0.1111111111111111 0.1111111111111111 0.1111111111111111 0.1111111111111111</probabilities>
		</cpt>
	</nodes>
	<extensions>
		<genie version="1.0" app="SMILE Mar 25 2008" name="M_shoe_size" faultnameformat="nodestate">
			<node id="M_shoe_size_PREM">
				<name>M_shoe_size PREM</name>
				<interior color="e5f6f7" />
				<outline color="0000bb" />
				<font color="000000" name="MS Sans Serif" size="8" />
				<position>300 200 430 250</position>
			</node>
			<node id="M_shoe_size_INF">
				<name>M_shoe_size INF</name>
				<interior color="e5f6f7" />
				<outline color="0000bb" />
				<font color="000000" name="MS Sans Serif" size="8" />
				<position>0 0 130 50</position>
			</node>
			<node id="M_sex">
				<name>Sex</name>
				<interior color="e5f6f7" />
				<outline color="0000bb" />
				<font color="000000" name="MS Sans Serif" size="8" />
				<position>300 100 430 150</position>
			</node>
			<node id="M_size">
				<name>Size</name>
				<interior color="e5f6f7" />
				<outline color="0000bb" />
				<font color="000000" name="MS Sans Serif" size="8" />
				<position>100 100 230 150</position>
			</node>
		</genie>
	</extensions>
</smile>
